Language model created by QuickLM on Mon Aug  7 12:17:35 EDT 2017
Copyright (c) 1996-2010 Carnegie Mellon University and Alexander I. Rudnicky

The model is in standard ARPA format, designed by Doug Paul while he was at MITRE.

The code that was used to produce this language model is available in Open Source.
Please visit http://www.speech.cs.cmu.edu/tools/ for more information

The (fixed) discount mass is 0.5. The backoffs are computed using the ratio method.
This model based on a corpus of 31 sentences and 29 words

\data\
ngram 1=29
ngram 2=61
ngram 3=55

\1-grams:
-0.8779 </s> -0.3010
-0.8779 <s> -0.2372
-1.8921 ADD -0.2801
-2.3692 BOTTOM -0.2393
-1.7672 CUBE -0.2393
-1.7672 CYLINDER -0.2307
-2.3692 DOWN -0.2393
-2.3692 EIGHT -0.2840
-2.3692 FIVE -0.2840
-2.3692 FOUR -0.2840
-2.3692 FRONT -0.2393
-2.0682 HERE -0.2393
-2.0682 LEFT -0.2393
-1.8921 MONKEY -0.2350
-1.7672 MOVE -0.2151
-2.3692 NINE -0.2840
-2.3692 ONE -0.2992
-2.3692 PIXEL -0.2393
-1.4150 PIXELS -0.2393
-1.7672 RENAME -0.2151
-2.3692 RIGHT -0.2393
-1.8921 SELECT -0.2218
-2.3692 SEVEN -0.2840
-2.3692 SIX -0.2840
-2.3692 TEN -0.2840
-2.3692 THREE -0.2840
-2.3692 TOP -0.2393
-2.3692 TWO -0.2840
-2.3692 UP -0.2393

\2-grams:
-1.3153 <s> ADD 0.0000
-1.7924 <s> BOTTOM 0.0000
-1.7924 <s> DOWN 0.0000
-1.7924 <s> EIGHT 0.0000
-1.7924 <s> FIVE 0.0000
-1.7924 <s> FOUR 0.0000
-1.7924 <s> FRONT 0.0000
-1.7924 <s> LEFT 0.0000
-1.1903 <s> MOVE 0.0000
-1.7924 <s> NINE 0.0000
-1.7924 <s> ONE 0.0000
-1.1903 <s> RENAME 0.0000
-1.7924 <s> RIGHT 0.0000
-1.3153 <s> SELECT 0.0000
-1.7924 <s> SEVEN 0.0000
-1.7924 <s> SIX 0.0000
-1.7924 <s> TEN 0.0000
-1.7924 <s> THREE 0.0000
-1.7924 <s> TOP 0.0000
-1.7924 <s> TWO 0.0000
-1.7924 <s> UP 0.0000
-0.7782 ADD CUBE 0.0000
-0.7782 ADD CYLINDER -0.2430
-0.7782 ADD MONKEY -0.1249
-0.3010 BOTTOM </s> -0.3010
-0.3010 CUBE </s> -0.3010
-0.6021 CYLINDER </s> -0.3010
-0.9031 CYLINDER HERE 0.0000
-0.9031 CYLINDER LEFT 0.0000
-0.3010 DOWN </s> -0.3010
-0.3010 EIGHT PIXELS 0.0000
-0.3010 FIVE PIXELS 0.0000
-0.3010 FOUR PIXELS 0.0000
-0.3010 FRONT </s> -0.3010
-0.3010 HERE </s> -0.3010
-0.3010 LEFT </s> -0.3010
-0.4771 MONKEY </s> -0.3010
-0.7782 MONKEY HERE 0.0000
-0.9031 MOVE </s> -0.3010
-0.9031 MOVE CUBE 0.0000
-0.9031 MOVE CYLINDER -0.2430
-0.9031 MOVE MONKEY -0.2218
-0.3010 NINE PIXELS 0.0000
-0.3010 ONE PIXEL 0.0000
-0.3010 PIXEL </s> -0.3010
-0.3010 PIXELS </s> -0.3010
-0.9031 RENAME </s> -0.3010
-0.9031 RENAME CUBE 0.0000
-0.9031 RENAME CYLINDER -0.1761
-0.9031 RENAME MONKEY -0.1249
-0.3010 RIGHT </s> -0.3010
-0.7782 SELECT </s> -0.3010
-0.7782 SELECT CUBE 0.0000
-0.7782 SELECT CYLINDER -0.1761
-0.3010 SEVEN PIXELS 0.0000
-0.3010 SIX PIXELS 0.0000
-0.3010 TEN PIXELS 0.0000
-0.3010 THREE PIXELS 0.0000
-0.3010 TOP </s> -0.3010
-0.3010 TWO PIXELS 0.0000
-0.3010 UP </s> -0.3010

\3-grams:
-0.7782 <s> ADD CUBE
-0.7782 <s> ADD CYLINDER
-0.7782 <s> ADD MONKEY
-0.3010 <s> BOTTOM </s>
-0.3010 <s> DOWN </s>
-0.3010 <s> EIGHT PIXELS
-0.3010 <s> FIVE PIXELS
-0.3010 <s> FOUR PIXELS
-0.3010 <s> FRONT </s>
-0.3010 <s> LEFT </s>
-0.9031 <s> MOVE </s>
-0.9031 <s> MOVE CUBE
-0.9031 <s> MOVE CYLINDER
-0.9031 <s> MOVE MONKEY
-0.3010 <s> NINE PIXELS
-0.3010 <s> ONE PIXEL
-0.9031 <s> RENAME </s>
-0.9031 <s> RENAME CUBE
-0.9031 <s> RENAME CYLINDER
-0.9031 <s> RENAME MONKEY
-0.3010 <s> RIGHT </s>
-0.7782 <s> SELECT </s>
-0.7782 <s> SELECT CUBE
-0.7782 <s> SELECT CYLINDER
-0.3010 <s> SEVEN PIXELS
-0.3010 <s> SIX PIXELS
-0.3010 <s> TEN PIXELS
-0.3010 <s> THREE PIXELS
-0.3010 <s> TOP </s>
-0.3010 <s> TWO PIXELS
-0.3010 <s> UP </s>
-0.3010 ADD CUBE </s>
-0.3010 ADD CYLINDER LEFT
-0.3010 ADD MONKEY </s>
-0.3010 CYLINDER HERE </s>
-0.3010 CYLINDER LEFT </s>
-0.3010 EIGHT PIXELS </s>
-0.3010 FIVE PIXELS </s>
-0.3010 FOUR PIXELS </s>
-0.3010 MONKEY HERE </s>
-0.3010 MOVE CUBE </s>
-0.3010 MOVE CYLINDER HERE
-0.3010 MOVE MONKEY HERE
-0.3010 NINE PIXELS </s>
-0.3010 ONE PIXEL </s>
-0.3010 RENAME CUBE </s>
-0.3010 RENAME CYLINDER </s>
-0.3010 RENAME MONKEY </s>
-0.3010 SELECT CUBE </s>
-0.3010 SELECT CYLINDER </s>
-0.3010 SEVEN PIXELS </s>
-0.3010 SIX PIXELS </s>
-0.3010 TEN PIXELS </s>
-0.3010 THREE PIXELS </s>
-0.3010 TWO PIXELS </s>

\end\